digraph Tree {
node [shape=box, style="filled", color="black", fontname="helvetica"] ;
edge [fontname="helvetica"] ;
0 [label="petal length (cm) <= 2.45\ngini = 0.667\nsamples = 120\nvalue = [41, 40, 39]\nclass = setosa", fillcolor="#fffdfd"] ;
1 [label="gini = 0.0\nsamples = 41\nvalue = [41, 0, 0]\nclass = setosa", fillcolor="#e58139"] ;
0 -> 1 [labeldistance=2.5, labelangle=45, headlabel="True"] ;
2 [label="petal length (cm) <= 4.75\ngini = 0.5\nsamples = 79\nvalue = [0, 40, 39]\nclass = versicolor", fillcolor="#fafefc"] ;
0 -> 2 [labeldistance=2.5, labelangle=-45, headlabel="False"] ;
3 [label="petal width (cm) <= 1.6\ngini = 0.056\nsamples = 35\nvalue = [0, 34, 1]\nclass = versicolor", fillcolor="#3fe685"] ;
2 -> 3 ;
4 [label="gini = 0.0\nsamples = 34\nvalue = [0, 34, 0]\nclass = versicolor", fillcolor="#39e581"] ;
3 -> 4 ;
5 [label="gini = 0.0\nsamples = 1\nvalue = [0, 0, 1]\nclass = virginica", fillcolor="#8139e5"] ;
3 -> 5 ;
6 [label="petal width (cm) <= 1.75\ngini = 0.236\nsamples = 44\nvalue = [0, 6, 38]\nclass = virginica", fillcolor="#9558e9"] ;
2 -> 6 ;
7 [label="sepal length (cm) <= 7.05\ngini = 0.408\nsamples = 7\nvalue = [0, 5, 2]\nclass = versicolor", fillcolor="#88efb3"] ;
6 -> 7 ;
8 [label="sepal length (cm) <= 6.2\ngini = 0.278\nsamples = 6\nvalue = [0, 5, 1]\nclass = versicolor", fillcolor="#61ea9a"] ;
7 -> 8 ;
9 [label="sepal length (cm) <= 6.05\ngini = 0.5\nsamples = 2\nvalue = [0, 1, 1]\nclass = versicolor", fillcolor="#ffffff"] ;
8 -> 9 ;
10 [label="gini = 0.0\nsamples = 1\nvalue = [0, 1, 0]\nclass = versicolor", fillcolor="#39e581"] ;
9 -> 10 ;
11 [label="gini = 0.0\nsamples = 1\nvalue = [0, 0, 1]\nclass = virginica", fillcolor="#8139e5"] ;
9 -> 11 ;
12 [label="gini = 0.0\nsamples = 4\nvalue = [0, 4, 0]\nclass = versicolor", fillcolor="#39e581"] ;
8 -> 12 ;
13 [label="gini = 0.0\nsamples = 1\nvalue = [0, 0, 1]\nclass = virginica", fillcolor="#8139e5"] ;
7 -> 13 ;
14 [label="sepal length (cm) <= 5.95\ngini = 0.053\nsamples = 37\nvalue = [0, 1, 36]\nclass = virginica", fillcolor="#843ee6"] ;
6 -> 14 ;
15 [label="sepal length (cm) <= 5.85\ngini = 0.375\nsamples = 4\nvalue = [0, 1, 3]\nclass = virginica", fillcolor="#ab7bee"] ;
14 -> 15 ;
16 [label="gini = 0.0\nsamples = 3\nvalue = [0, 0, 3]\nclass = virginica", fillcolor="#8139e5"] ;
15 -> 16 ;
17 [label="gini = 0.0\nsamples = 1\nvalue = [0, 1, 0]\nclass = versicolor", fillcolor="#39e581"] ;
15 -> 17 ;
18 [label="gini = 0.0\nsamples = 33\nvalue = [0, 0, 33]\nclass = virginica", fillcolor="#8139e5"] ;
14 -> 18 ;
}